%YAML:1.0
BayesModel: !!opencv-ml-bayesian
   var_count: 6
   var_all: 6
   cls_labels: !!opencv-matrix
      rows: 1
      cols: 3
      dt: i
      data: [ 1, 2, 6 ]
   count:
      - !!opencv-matrix
         rows: 1
         cols: 6
         dt: i
         data: [ 7, 7, 7, 7, 7, 7 ]
      - !!opencv-matrix
         rows: 1
         cols: 6
         dt: i
         data: [ 1, 1, 1, 1, 1, 1 ]
      - !!opencv-matrix
         rows: 1
         cols: 6
         dt: i
         data: [ 2, 2, 2, 2, 2, 2 ]
   sum:
      - !!opencv-matrix
         rows: 1
         cols: 6
         dt: d
         data: [ 2.9423842215538025e+002, 1.1047570037841797e+003,
             -4.1741800760064507e-004, 5.8750000000000000e+002, 174., 7. ]
      - !!opencv-matrix
         rows: 1
         cols: 6
         dt: d
         data: [ 0., 68., 0., 0., 0., 2. ]
      - !!opencv-matrix
         rows: 1
         cols: 6
         dt: d
         data: [ 0., 426., 0., 0., 0., 12. ]
   productsum:
      - !!opencv-matrix
         rows: 6
         cols: 6
         dt: d
         data: [ 8.4500055459343654e+004, 4.7856122452935480e+004,
             -1.2520542685067745e-001, 8.7509144866466522e+004,
             2.3014882667541504e+004, 2.9423842215538025e+002,
             4.7856122452935480e+004, 2.4827208579153591e+005,
             -6.7310768180270319e-002, 1.0438651859283447e+005,
             3.1231902374267578e+004, 1.1047570037841797e+003,
             -1.2520542685067745e-001, -6.7310768180270319e-002,
             1.8587257929473879e-007, -1.2428310726136260e-001,
             -3.2315604592440650e-002, -4.1741800760064507e-004,
             8.7509144866466522e+004, 1.0438651859283447e+005,
             -1.2428310726136260e-001, 1.7260625000000000e+005, 51045.,
             5.8750000000000000e+002, 2.3014882667541504e+004,
             3.1231902374267578e+004, -3.2315604592440650e-002, 51045.,
             15300., 174., 2.9423842215538025e+002,
             1.1047570037841797e+003, -4.1741800760064507e-004,
             5.8750000000000000e+002, 174., 7. ]
      - !!opencv-matrix
         rows: 6
         cols: 6
         dt: d
         data: [ 0., 0., 0., 0., 0., 0., 0., 4624., 0., 0., 0., 136., 0.,
             0., 0., 0., 0., 0., 0., 0., 0., 0., 0., 0., 0., 0., 0., 0.,
             0., 0., 0., 136., 0., 0., 0., 4. ]
      - !!opencv-matrix
         rows: 6
         cols: 6
         dt: d
         data: [ 0., 0., 0., 0., 0., 0., 0., 92196., 0., 0., 0., 2556.,
             0., 0., 0., 0., 0., 0., 0., 0., 0., 0., 0., 0., 0., 0., 0.,
             0., 0., 0., 0., 2556., 0., 0., 0., 72. ]
   avg:
      - !!opencv-matrix
         rows: 1
         cols: 6
         dt: d
         data: [ 4.2034060307911467e+001, 1.5782242911202567e+002,
             -5.9631143942949295e-005, 8.3928571428571431e+001,
             2.4857142857142858e+001, 1. ]
      - !!opencv-matrix
         rows: 1
         cols: 6
         dt: d
         data: [ 0., 68., 0., 0., 0., 2. ]
      - !!opencv-matrix
         rows: 1
         cols: 6
         dt: d
         data: [ 0., 213., 0., 0., 0., 6. ]
   inv_eigen_values:
      - !!opencv-matrix
         rows: 1
         cols: 6
         dt: d
         data: [ 3.4080001715132416e-005, 8.1764758339980870e-005,
             1.9427430790534375e-004, 8388608., 8388608., 8388608. ]
      - !!opencv-matrix
         rows: 1
         cols: 6
         dt: d
         data: [ 8388608., 8388608., 8388608., 8388608., 8388608.,
             8388608. ]
      - !!opencv-matrix
         rows: 1
         cols: 6
         dt: d
         data: [ 6.8587105624142656e-004, 8.3886079999999991e+006,
             8.3886079999999991e+006, 8.3886079999999991e+006, 8388608.,
             8388608. ]
   cov_rotate_mats:
      - !!opencv-matrix
         rows: 6
         cols: 6
         dt: d
         data: [ 5.2652639383443434e-001, 1.0846637008061559e-001,
             -7.6273669485003445e-007, 8.1079906004287428e-001,
             2.3153809058176772e-001, 0., -1.6398665394794174e-001,
             9.8610797326309096e-001, 2.5240431424639658e-007,
             -2.6278410833518496e-002, 2.9811940423293873e-003, 0.,
             -8.3145136500621108e-001, -1.2580187450310054e-001,
             1.3208596994523293e-006, 4.9308550214393698e-001,
             2.2300045644467015e-001, 0., 6.7579298100906793e-002,
             -2.5141025712222998e-017, -4.3635947535380410e-005,
             -3.1429447456853110e-001, 9.4691711348976249e-001, 0.,
             -4.4901092511003753e-006, 6.0937185077454413e-022,
             -9.9999999904675696e-001, 1.3740775004686278e-005,
             -4.1200923339694720e-005, 0., -1.7610309040698612e-032,
             1.9209256633944919e-032, 0., -1.3840601243600463e-032,
             4.9728119445670782e-033, -1. ]
      - !!opencv-matrix
         rows: 6
         cols: 6
         dt: d
         data: [ -4.0824829046386296e-001, -4.0824829046386296e-001,
             4.0824829046386296e-001, -4.0824829046386296e-001,
             -4.0824829046386296e-001, -4.0824829046386296e-001,
             -4.0824829046386296e-001, 4.0824829046386296e-001,
             4.0824829046386296e-001, 4.0824829046386296e-001,
             -4.0824829046386296e-001, 4.0824829046386296e-001,
             8.1649658092772615e-001, 4.3558197887888711e-018,
             4.0824829046386307e-001, 4.3558197887888711e-018,
             -4.0824829046386307e-001, 4.3558197887888711e-018,
             -1.8692550180618276e-018, -4.0824829046386307e-001,
             1.8692550180618276e-018, -4.0824829046386307e-001,
             -1.8692550180618276e-018, 8.1649658092772615e-001,
             -2.6685243396523967e-001, 3.6202424768250036e-001,
             2.6685243396523967e-001, 3.6202424768250036e-001,
             -2.6685243396523967e-001, -7.2404849536500071e-001,
             2.4996930904144354e-017, -5.0000000000000011e-001,
             5.0000000000000000e-001, 5.0000000000000000e-001,
             5.0000000000000000e-001, -4.0748447259723321e-017 ]
      - !!opencv-matrix
         rows: 6
         cols: 6
         dt: d
         data: [ 0., 9.9999999999999989e-001, 0., 0., 0., 0.,
             -4.4721359549995787e-001, -5.5123331527068778e-032,
             4.4721359549995787e-001, -4.4721359549995787e-001,
             -4.4721359549995787e-001, -4.4721359549995787e-001,
             -3.6514837167011072e-001, 5.4009614065436647e-032,
             3.6514837167011072e-001, 5.4772255750516619e-001,
             -3.6514837167011072e-001, 5.4772255750516619e-001,
             8.1649658092772615e-001, 8.0512778992563374e-032,
             4.0824829046386307e-001, -7.1047750836102881e-018,
             -4.0824829046386307e-001, -7.1047750836102881e-018,
             2.7204366483544638e-018, -6.9726111936842056e-032,
             -2.7204366483544657e-018, -7.0710678118654757e-001,
             2.7204366483544657e-018, 7.0710678118654746e-001,
             -4.0905948101441791e-001, 5.3275609752182140e-001,
             4.0905948101441791e-001, -3.2724758481153432e-001,
             -4.0905948101441791e-001, -3.2724758481153432e-001 ]
   c: !!opencv-matrix
      rows: 1
      cols: 3
      dt: d
      data: [ -1.9582451979308196e+001, -9.5654310917272454e+001,
          -7.2427104851825106e+001 ]
